digraph Tree {
node [shape=box, style="filled, rounded", color="black", fontname="helvetica"] ;
edge [fontname="helvetica"] ;
0 [label=<weather &le; 4.5<br/>squared_error = 6.585<br/>samples = 156<br/>value = [[2.431]<br/>[2.055]<br/>[3.686]<br/>[3.384]<br/>[6.255]]>, fillcolor="#ffffff"] ;
1 [label=<weather &le; 3.5<br/>squared_error = 2.511<br/>samples = 53<br/>value = [[1.099]<br/>[0.736]<br/>[1.473]<br/>[1.253]<br/>[2.484]]>, fillcolor="#eda775"] ;
0 -> 1 [labeldistance=2.5, labelangle=45, headlabel="True"] ;
2 [label=<weather &le; 2.5<br/>squared_error = 1.388<br/>samples = 39<br/>value = [[0.656]<br/>[0.484]<br/>[1.078]<br/>[0.812]<br/>[1.406]]>, fillcolor="#e88f4f"] ;
1 -> 2 ;
3 [label=<squared_error = 0.729<br/>samples = 19<br/>value = [[0.324]<br/>[0.324]<br/>[0.486]<br/>[0.405]<br/>[0.649]]>, fillcolor="#e58139"] ;
2 -> 3 ;
4 [label=<squared_error = 1.496<br/>samples = 20<br/>value = [[1.111]<br/>[0.704]<br/>[1.889]<br/>[1.37]<br/>[2.444]]>, fillcolor="#e89253"] ;
2 -> 4 ;
5 [label=<day_of_week &le; 4.5<br/>squared_error = 2.345<br/>samples = 14<br/>value = [[2.148]<br/>[1.333]<br/>[2.407]<br/>[2.296]<br/>[5.037]]>, fillcolor="#eca470"] ;
1 -> 5 ;
6 [label=<squared_error = 2.015<br/>samples = 11<br/>value = [[1.278]<br/>[1.444]<br/>[2.778]<br/>[2.111]<br/>[4.444]]>, fillcolor="#eb9d65"] ;
5 -> 6 ;
7 [label=<squared_error = 1.452<br/>samples = 3<br/>value = [[3.889]<br/>[1.111]<br/>[1.667]<br/>[2.667]<br/>[6.222]]>, fillcolor="#e89151"] ;
5 -> 7 ;
8 [label=<temperature_celsius &le; 9.5<br/>squared_error = 4.155<br/>samples = 103<br/>value = [[3.171]<br/>[2.787]<br/>[4.915]<br/>[4.567]<br/>[8.348]]>, fillcolor="#f4cbad"] ;
0 -> 8 [labeldistance=2.5, labelangle=-45, headlabel="False"] ;
9 [label=<temperature_celsius &le; 5.5<br/>squared_error = 3.175<br/>samples = 30<br/>value = [[3.062]<br/>[2.5]<br/>[3.542]<br/>[3.479]<br/>[7.188]]>, fillcolor="#f0b68c"] ;
8 -> 9 ;
10 [label=<squared_error = 3.039<br/>samples = 18<br/>value = [[2.321]<br/>[2.107]<br/>[3.143]<br/>[3.357]<br/>[6.571]]>, fillcolor="#efb387"] ;
9 -> 10 ;
11 [label=<squared_error = 2.52<br/>samples = 12<br/>value = [[4.1]<br/>[3.05]<br/>[4.1]<br/>[3.65]<br/>[8.05]]>, fillcolor="#eda876"] ;
9 -> 11 ;
12 [label=<month &le; 8.5<br/>squared_error = 4.033<br/>samples = 73<br/>value = [[3.216]<br/>[2.905]<br/>[5.483]<br/>[5.017]<br/>[8.828]]>, fillcolor="#f4c8a9"] ;
8 -> 12 ;
13 [label=<squared_error = 3.748<br/>samples = 50<br/>value = [[3.436]<br/>[2.833]<br/>[5.295]<br/>[4.782]<br/>[9.628]]>, fillcolor="#f2c29f"] ;
12 -> 13 ;
14 [label=<squared_error = 3.633<br/>samples = 23<br/>value = [[2.763]<br/>[3.053]<br/>[5.868]<br/>[5.5]<br/>[7.184]]>, fillcolor="#f2bf9b"] ;
12 -> 14 ;
}
