digraph Tree {
node [shape=box, style="filled, rounded", color="black", fontname="helvetica"] ;
edge [fontname="helvetica"] ;
0 [label=<weather &le; 4.5<br/>squared_error = 6.317<br/>samples = 147<br/>value = [[2.378]<br/>[2.331]<br/>[3.787]<br/>[3.547]<br/>[6.697]]>, fillcolor="#ffffff"] ;
1 [label=<weather &le; 3.5<br/>squared_error = 2.557<br/>samples = 47<br/>value = [[0.889]<br/>[0.951]<br/>[1.642]<br/>[1.284]<br/>[2.704]]>, fillcolor="#eeac7c"] ;
0 -> 1 [labeldistance=2.5, labelangle=45, headlabel="True"] ;
2 [label=<Temperature &le; 5.5<br/>squared_error = 1.554<br/>samples = 33<br/>value = [[0.683]<br/>[0.75]<br/>[1.417]<br/>[0.767]<br/>[1.767]]>, fillcolor="#e99659"] ;
1 -> 2 ;
3 [label=<squared_error = 0.628<br/>samples = 13<br/>value = [[0.391]<br/>[0.217]<br/>[0.304]<br/>[0.13]<br/>[0.826]]>, fillcolor="#e58139"] ;
2 -> 3 ;
4 [label=<squared_error = 1.547<br/>samples = 20<br/>value = [[0.865]<br/>[1.081]<br/>[2.108]<br/>[1.162]<br/>[2.351]]>, fillcolor="#e99559"] ;
2 -> 4 ;
5 [label=<Temperature &le; 5.5<br/>squared_error = 2.605<br/>samples = 14<br/>value = [[1.476]<br/>[1.524]<br/>[2.286]<br/>[2.762]<br/>[5.381]]>, fillcolor="#eead7e"] ;
1 -> 5 ;
6 [label=<squared_error = 1.6<br/>samples = 5<br/>value = [[0.857]<br/>[1.286]<br/>[1.714]<br/>[1.714]<br/>[2.857]]>, fillcolor="#e9975b"] ;
5 -> 6 ;
7 [label=<squared_error = 1.872<br/>samples = 9<br/>value = [[1.786]<br/>[1.643]<br/>[2.571]<br/>[3.286]<br/>[6.643]]>, fillcolor="#eb9d64"] ;
5 -> 7 ;
8 [label=<Temperature &le; 9.5<br/>squared_error = 3.982<br/>samples = 100<br/>value = [[3.075]<br/>[2.977]<br/>[4.792]<br/>[4.607]<br/>[8.566]]>, fillcolor="#f4cbae"] ;
0 -> 8 [labeldistance=2.5, labelangle=-45, headlabel="False"] ;
9 [label=<day_of_week &le; 3.5<br/>squared_error = 3.302<br/>samples = 24<br/>value = [[3.2]<br/>[2.356]<br/>[3.533]<br/>[4.644]<br/>[8.0]]>, fillcolor="#f1bc96"] ;
8 -> 9 ;
10 [label=<squared_error = 2.613<br/>samples = 14<br/>value = [[3.28]<br/>[2.52]<br/>[3.44]<br/>[4.52]<br/>[7.04]]>, fillcolor="#eead7e"] ;
9 -> 10 ;
11 [label=<squared_error = 3.613<br/>samples = 10<br/>value = [[3.1]<br/>[2.15]<br/>[3.65]<br/>[4.8]<br/>[9.2]]>, fillcolor="#f3c3a1"] ;
9 -> 11 ;
12 [label=<is_weekend &le; 0.5<br/>squared_error = 4.001<br/>samples = 76<br/>value = [[3.031]<br/>[3.195]<br/>[5.234]<br/>[4.594]<br/>[8.766]]>, fillcolor="#f4ccae"] ;
8 -> 12 ;
13 [label=<squared_error = 4.028<br/>samples = 58<br/>value = [[3.031]<br/>[3.031]<br/>[5.268]<br/>[4.299]<br/>[8.361]]>, fillcolor="#f5ccaf"] ;
12 -> 13 ;
14 [label=<squared_error = 3.197<br/>samples = 18<br/>value = [[3.032]<br/>[3.71]<br/>[5.129]<br/>[5.516]<br/>[10.032]]>, fillcolor="#f1ba92"] ;
12 -> 14 ;
}
