digraph Tree {
node [shape=box, style="filled, rounded", color="black", fontname="helvetica"] ;
edge [fontname="helvetica"] ;
0 [label=<weather &le; 4.5<br/>squared_error = 5.973<br/>samples = 159<br/>value = [[2.184]<br/>[2.157]<br/>[3.788]<br/>[3.447]<br/>[6.659]]>, fillcolor="#ffffff"] ;
1 [label=<weather &le; 2.5<br/>squared_error = 2.427<br/>samples = 51<br/>value = [[0.747]<br/>[0.707]<br/>[1.68]<br/>[1.36]<br/>[2.507]]>, fillcolor="#f0b489"] ;
0 -> 1 [labeldistance=2.5, labelangle=45, headlabel="True"] ;
2 [label=<day_of_week &le; 5.5<br/>squared_error = 0.328<br/>samples = 16<br/>value = [[0.04]<br/>[0.08]<br/>[0.44]<br/>[0.4]<br/>[0.6]]>, fillcolor="#e68844"] ;
1 -> 2 ;
3 [label=<squared_error = 0.259<br/>samples = 15<br/>value = [[0.042]<br/>[0.042]<br/>[0.333]<br/>[0.417]<br/>[0.542]]>, fillcolor="#e68642"] ;
2 -> 3 ;
4 [label=<squared_error = 0.0<br/>samples = 1<br/>value = [[0.0]<br/>[1.0]<br/>[3.0]<br/>[0.0]<br/>[2.0]]>, fillcolor="#e58139"] ;
2 -> 4 ;
5 [label=<weather &le; 3.5<br/>squared_error = 2.428<br/>samples = 35<br/>value = [[1.1]<br/>[1.02]<br/>[2.3]<br/>[1.84]<br/>[3.46]]>, fillcolor="#f0b48a"] ;
1 -> 5 ;
6 [label=<squared_error = 1.881<br/>samples = 23<br/>value = [[0.886]<br/>[0.657]<br/>[2.257]<br/>[1.486]<br/>[2.857]]>, fillcolor="#eda977"] ;
5 -> 6 ;
7 [label=<squared_error = 2.667<br/>samples = 12<br/>value = [[1.6]<br/>[1.867]<br/>[2.4]<br/>[2.667]<br/>[4.867]]>, fillcolor="#f1b991"] ;
5 -> 7 ;
8 [label=<temperature_celsius &le; 5.5<br/>squared_error = 3.883<br/>samples = 108<br/>value = [[2.783]<br/>[2.761]<br/>[4.667]<br/>[4.317]<br/>[8.389]]>, fillcolor="#f6d3ba"] ;
0 -> 8 [labeldistance=2.5, labelangle=-45, headlabel="False"] ;
9 [label=<day_of_week &le; 1.5<br/>squared_error = 2.77<br/>samples = 19<br/>value = [[2.5]<br/>[1.975]<br/>[3.0]<br/>[3.15]<br/>[7.0]]>, fillcolor="#f1bb95"] ;
8 -> 9 ;
10 [label=<squared_error = 1.59<br/>samples = 5<br/>value = [[2.7]<br/>[1.9]<br/>[2.0]<br/>[1.5]<br/>[9.0]]>, fillcolor="#eca36e"] ;
9 -> 10 ;
11 [label=<squared_error = 2.473<br/>samples = 14<br/>value = [[2.433]<br/>[2.0]<br/>[3.333]<br/>[3.7]<br/>[6.333]]>, fillcolor="#f0b58b"] ;
9 -> 11 ;
12 [label=<temperature_celsius &le; 21.5<br/>squared_error = 3.704<br/>samples = 89<br/>value = [[2.864]<br/>[2.986]<br/>[5.143]<br/>[4.65]<br/>[8.786]]>, fillcolor="#f5cfb4"] ;
8 -> 12 ;
13 [label=<squared_error = 3.753<br/>samples = 74<br/>value = [[2.784]<br/>[3.017]<br/>[5.155]<br/>[4.664]<br/>[8.414]]>, fillcolor="#f5d0b5"] ;
12 -> 13 ;
14 [label=<squared_error = 2.644<br/>samples = 15<br/>value = [[3.25]<br/>[2.833]<br/>[5.083]<br/>[4.583]<br/>[10.583]]>, fillcolor="#f1b991"] ;
12 -> 14 ;
}
