digraph Tree {
node [shape=box, style="filled, rounded", color="black", fontname="helvetica"] ;
edge [fontname="helvetica"] ;
0 [label=<weather &le; 4.5<br/>squared_error = 6.391<br/>samples = 159<br/>value = [[2.26]<br/>[2.236]<br/>[3.587]<br/>[3.524]<br/>[6.457]]>, fillcolor="#ffffff"] ;
1 [label=<weather &le; 2.5<br/>squared_error = 2.569<br/>samples = 55<br/>value = [[1.087]<br/>[0.957]<br/>[1.576]<br/>[1.533]<br/>[2.826]]>, fillcolor="#efb286"] ;
0 -> 1 [labeldistance=2.5, labelangle=45, headlabel="True"] ;
2 [label=<Temperature &le; 5.0<br/>squared_error = 0.494<br/>samples = 13<br/>value = [[0.115]<br/>[0.231]<br/>[0.538]<br/>[0.538]<br/>[0.808]]>, fillcolor="#e68844"] ;
1 -> 2 ;
3 [label=<squared_error = 0.138<br/>samples = 7<br/>value = [[0.118]<br/>[0.118]<br/>[0.059]<br/>[0.235]<br/>[0.471]]>, fillcolor="#e58139"] ;
2 -> 3 ;
4 [label=<squared_error = 0.677<br/>samples = 6<br/>value = [[0.111]<br/>[0.444]<br/>[1.444]<br/>[1.111]<br/>[1.444]]>, fillcolor="#e78c4a"] ;
2 -> 4 ;
5 [label=<day_of_week &le; 4.5<br/>squared_error = 2.551<br/>samples = 42<br/>value = [[1.47]<br/>[1.242]<br/>[1.985]<br/>[1.924]<br/>[3.621]]>, fillcolor="#efb285"] ;
1 -> 5 ;
6 [label=<squared_error = 2.301<br/>samples = 31<br/>value = [[1.082]<br/>[1.082]<br/>[1.735]<br/>[1.571]<br/>[3.061]]>, fillcolor="#eead7d"] ;
5 -> 6 ;
7 [label=<squared_error = 1.755<br/>samples = 11<br/>value = [[2.588]<br/>[1.706]<br/>[2.706]<br/>[2.941]<br/>[5.235]]>, fillcolor="#eca26c"] ;
5 -> 7 ;
8 [label=<weather &le; 5.5<br/>squared_error = 4.252<br/>samples = 104<br/>value = [[2.926]<br/>[2.963]<br/>[4.728]<br/>[4.654]<br/>[8.519]]>, fillcolor="#f6d4bb"] ;
0 -> 8 [labeldistance=2.5, labelangle=-45, headlabel="False"] ;
9 [label=<Temperature &le; 15.5<br/>squared_error = 3.581<br/>samples = 55<br/>value = [[2.927]<br/>[3.293]<br/>[4.122]<br/>[4.28]<br/>[7.451]]>, fillcolor="#f3c6a6"] ;
8 -> 9 ;
10 [label=<squared_error = 2.754<br/>samples = 31<br/>value = [[3.0]<br/>[2.372]<br/>[3.395]<br/>[4.14]<br/>[7.279]]>, fillcolor="#f0b68c"] ;
9 -> 10 ;
11 [label=<squared_error = 3.829<br/>samples = 24<br/>value = [[2.846]<br/>[4.308]<br/>[4.923]<br/>[4.436]<br/>[7.641]]>, fillcolor="#f4cbae"] ;
9 -> 11 ;
12 [label=<Temperature &le; 5.5<br/>squared_error = 4.211<br/>samples = 49<br/>value = [[2.925]<br/>[2.625]<br/>[5.35]<br/>[5.038]<br/>[9.612]]>, fillcolor="#f6d3ba"] ;
8 -> 12 ;
13 [label=<squared_error = 2.358<br/>samples = 8<br/>value = [[1.583]<br/>[1.5]<br/>[3.25]<br/>[3.167]<br/>[10.167]]>, fillcolor="#eeae7f"] ;
12 -> 13 ;
14 [label=<squared_error = 4.069<br/>samples = 41<br/>value = [[3.162]<br/>[2.824]<br/>[5.721]<br/>[5.368]<br/>[9.515]]>, fillcolor="#f5d0b5"] ;
12 -> 14 ;
}
