digraph Tree {
node [shape=box, style="filled, rounded", color="black", fontname="helvetica"] ;
edge [fontname="helvetica"] ;
0 [label=<weather &le; 4.5<br/>squared_error = 6.982<br/>samples = 153<br/>value = [[2.482]<br/>[1.949]<br/>[3.753]<br/>[3.62]<br/>[6.757]]>, fillcolor="#ffffff"] ;
1 [label=<temperature_celsius &le; 19.5<br/>squared_error = 2.465<br/>samples = 54<br/>value = [[1.2]<br/>[0.756]<br/>[1.667]<br/>[1.422]<br/>[2.567]]>, fillcolor="#eda673"] ;
0 -> 1 [labeldistance=2.5, labelangle=45, headlabel="True"] ;
2 [label=<weather &le; 2.5<br/>squared_error = 1.833<br/>samples = 45<br/>value = [[1.147]<br/>[0.693]<br/>[1.453]<br/>[1.04]<br/>[2.067]]>, fillcolor="#ea995f"] ;
1 -> 2 ;
3 [label=<squared_error = 0.598<br/>samples = 16<br/>value = [[0.273]<br/>[0.409]<br/>[0.455]<br/>[0.409]<br/>[0.591]]>, fillcolor="#e58139"] ;
2 -> 3 ;
4 [label=<squared_error = 1.827<br/>samples = 29<br/>value = [[1.509]<br/>[0.811]<br/>[1.868]<br/>[1.302]<br/>[2.679]]>, fillcolor="#ea995f"] ;
2 -> 4 ;
5 [label=<temperature_celsius &le; 22.5<br/>squared_error = 2.932<br/>samples = 9<br/>value = [[1.467]<br/>[1.067]<br/>[2.733]<br/>[3.333]<br/>[5.067]]>, fillcolor="#efaf81"] ;
1 -> 5 ;
6 [label=<squared_error = 2.342<br/>samples = 7<br/>value = [[1.4]<br/>[1.3]<br/>[2.1]<br/>[4.3]<br/>[4.2]]>, fillcolor="#eca36f"] ;
5 -> 6 ;
7 [label=<squared_error = 1.536<br/>samples = 2<br/>value = [[1.6]<br/>[0.6]<br/>[4.0]<br/>[1.4]<br/>[6.8]]>, fillcolor="#e99456"] ;
5 -> 7 ;
8 [label=<temperature_celsius &le; 10.5<br/>squared_error = 4.421<br/>samples = 99<br/>value = [[3.182]<br/>[2.6]<br/>[4.891]<br/>[4.818]<br/>[9.042]]>, fillcolor="#f5ccb0"] ;
0 -> 8 [labeldistance=2.5, labelangle=-45, headlabel="False"] ;
9 [label=<temperature_celsius &le; 6.5<br/>squared_error = 3.724<br/>samples = 28<br/>value = [[3.273]<br/>[2.295]<br/>[3.455]<br/>[3.932]<br/>[7.227]]>, fillcolor="#f2bf9a"] ;
8 -> 9 ;
10 [label=<squared_error = 3.415<br/>samples = 18<br/>value = [[3.103]<br/>[1.966]<br/>[2.897]<br/>[3.138]<br/>[7.241]]>, fillcolor="#f0b990"] ;
9 -> 10 ;
11 [label=<squared_error = 3.099<br/>samples = 10<br/>value = [[3.6]<br/>[2.933]<br/>[4.533]<br/>[5.467]<br/>[7.2]]>, fillcolor="#efb287"] ;
9 -> 11 ;
12 [label=<day_of_week &le; 4.5<br/>squared_error = 4.055<br/>samples = 71<br/>value = [[3.149]<br/>[2.711]<br/>[5.413]<br/>[5.14]<br/>[9.702]]>, fillcolor="#f3c5a4"] ;
8 -> 12 ;
13 [label=<squared_error = 4.037<br/>samples = 47<br/>value = [[2.792]<br/>[2.558]<br/>[5.156]<br/>[4.649]<br/>[9.558]]>, fillcolor="#f3c5a4"] ;
12 -> 13 ;
14 [label=<squared_error = 3.626<br/>samples = 24<br/>value = [[3.773]<br/>[2.977]<br/>[5.864]<br/>[6.0]<br/>[9.955]]>, fillcolor="#f1bd97"] ;
12 -> 14 ;
}
