digraph Tree {
node [shape=box, style="filled, rounded", color="black", fontname="helvetica"] ;
edge [fontname="helvetica"] ;
0 [label=<weather &le; 4.5<br/>squared_error = 6.471<br/>samples = 165<br/>value = [[2.63]<br/>[2.358]<br/>[4.079]<br/>[3.87]<br/>[6.732]]>, fillcolor="#ffffff"] ;
1 [label=<Temperature &le; 20.0<br/>squared_error = 2.005<br/>samples = 51<br/>value = [[1.068]<br/>[0.849]<br/>[1.685]<br/>[1.658]<br/>[2.411]]>, fillcolor="#eda876"] ;
0 -> 1 [labeldistance=2.5, labelangle=45, headlabel="True"] ;
2 [label=<weather &le; 2.5<br/>squared_error = 1.683<br/>samples = 45<br/>value = [[0.852]<br/>[0.721]<br/>[1.59]<br/>[1.197]<br/>[2.131]]>, fillcolor="#eca26c"] ;
1 -> 2 ;
3 [label=<squared_error = 0.929<br/>samples = 14<br/>value = [[0.762]<br/>[0.381]<br/>[0.857]<br/>[0.524]<br/>[1.048]]>, fillcolor="#e99355"] ;
2 -> 3 ;
4 [label=<squared_error = 1.712<br/>samples = 31<br/>value = [[0.9]<br/>[0.9]<br/>[1.975]<br/>[1.55]<br/>[2.7]]>, fillcolor="#eca26d"] ;
2 -> 4 ;
5 [label=<Temperature &le; 24.5<br/>squared_error = 1.4<br/>samples = 6<br/>value = [[2.167]<br/>[1.5]<br/>[2.167]<br/>[4.0]<br/>[3.833]]>, fillcolor="#eb9c64"] ;
1 -> 5 ;
6 [label=<squared_error = 0.768<br/>samples = 5<br/>value = [[1.8]<br/>[1.4]<br/>[2.4]<br/>[4.4]<br/>[3.2]]>, fillcolor="#e89050"] ;
5 -> 6 ;
7 [label=<squared_error = 0.0<br/>samples = 1<br/>value = [[4.0]<br/>[2.0]<br/>[1.0]<br/>[2.0]<br/>[7.0]]>, fillcolor="#e58139"] ;
5 -> 7 ;
8 [label=<Temperature &le; 19.5<br/>squared_error = 4.422<br/>samples = 114<br/>value = [[3.26]<br/>[2.967]<br/>[5.044]<br/>[4.762]<br/>[8.475]]>, fillcolor="#f7d7c0"] ;
0 -> 8 [labeldistance=2.5, labelangle=-45, headlabel="False"] ;
9 [label=<weather &le; 5.5<br/>squared_error = 3.858<br/>samples = 81<br/>value = [[3.062]<br/>[2.705]<br/>[4.612]<br/>[4.465]<br/>[8.062]]>, fillcolor="#f5ccaf"] ;
8 -> 9 ;
10 [label=<squared_error = 3.059<br/>samples = 44<br/>value = [[2.917]<br/>[2.833]<br/>[4.028]<br/>[3.903]<br/>[7.583]]>, fillcolor="#f1bd97"] ;
9 -> 10 ;
11 [label=<squared_error = 4.339<br/>samples = 37<br/>value = [[3.246]<br/>[2.544]<br/>[5.351]<br/>[5.175]<br/>[8.667]]>, fillcolor="#f6d5be"] ;
9 -> 11 ;
12 [label=<Temperature &le; 22.5<br/>squared_error = 4.867<br/>samples = 33<br/>value = [[3.75]<br/>[3.615]<br/>[6.115]<br/>[5.5]<br/>[9.5]]>, fillcolor="#f9e0ce"] ;
8 -> 12 ;
13 [label=<squared_error = 4.457<br/>samples = 16<br/>value = [[4.042]<br/>[3.625]<br/>[4.958]<br/>[6.792]<br/>[9.833]]>, fillcolor="#f7d8c1"] ;
12 -> 13 ;
14 [label=<squared_error = 4.198<br/>samples = 17<br/>value = [[3.5]<br/>[3.607]<br/>[7.107]<br/>[4.393]<br/>[9.214]]>, fillcolor="#f6d3b9"] ;
12 -> 14 ;
}
