digraph Tree {
node [shape=box, style="filled, rounded", color="black", fontname="helvetica"] ;
edge [fontname="helvetica"] ;
0 [label=<weather &le; 4.5<br/>squared_error = 6.131<br/>samples = 167<br/>value = [[2.588]<br/>[2.176]<br/>[3.816]<br/>[3.514]<br/>[6.588]]>, fillcolor="#ffffff"] ;
1 [label=<weather &le; 3.5<br/>squared_error = 2.427<br/>samples = 54<br/>value = [[1.329]<br/>[0.729]<br/>[1.859]<br/>[1.447]<br/>[2.671]]>, fillcolor="#eeae80"] ;
0 -> 1 [labeldistance=2.5, labelangle=45, headlabel="True"] ;
2 [label=<temperature_celsius &le; 5.5<br/>squared_error = 1.598<br/>samples = 38<br/>value = [[0.966]<br/>[0.483]<br/>[1.414]<br/>[0.879]<br/>[1.81]]>, fillcolor="#eb9c63"] ;
1 -> 2 ;
3 [label=<squared_error = 0.361<br/>samples = 15<br/>value = [[0.333]<br/>[0.048]<br/>[0.476]<br/>[0.19]<br/>[0.905]]>, fillcolor="#e58139"] ;
2 -> 3 ;
4 [label=<squared_error = 1.809<br/>samples = 23<br/>value = [[1.324]<br/>[0.73]<br/>[1.946]<br/>[1.27]<br/>[2.324]]>, fillcolor="#eca16b"] ;
2 -> 4 ;
5 [label=<temperature_celsius &le; 5.5<br/>squared_error = 2.242<br/>samples = 16<br/>value = [[2.111]<br/>[1.259]<br/>[2.815]<br/>[2.667]<br/>[4.519]]>, fillcolor="#edaa7a"] ;
1 -> 5 ;
6 [label=<squared_error = 1.339<br/>samples = 5<br/>value = [[0.857]<br/>[1.286]<br/>[1.143]<br/>[2.0]<br/>[2.429]]>, fillcolor="#e9965b"] ;
5 -> 6 ;
7 [label=<squared_error = 1.69<br/>samples = 11<br/>value = [[2.55]<br/>[1.25]<br/>[3.4]<br/>[2.9]<br/>[5.25]]>, fillcolor="#eb9e67"] ;
5 -> 7 ;
8 [label=<temperature_celsius &le; 19.5<br/>squared_error = 3.913<br/>samples = 113<br/>value = [[3.218]<br/>[2.9]<br/>[4.794]<br/>[4.547]<br/>[8.547]]>, fillcolor="#f5cfb3"] ;
0 -> 8 [labeldistance=2.5, labelangle=-45, headlabel="False"] ;
9 [label=<temperature_celsius &le; 5.5<br/>squared_error = 3.462<br/>samples = 85<br/>value = [[3.159]<br/>[2.651]<br/>[4.698]<br/>[4.103]<br/>[8.103]]>, fillcolor="#f3c5a3"] ;
8 -> 9 ;
10 [label=<squared_error = 2.638<br/>samples = 18<br/>value = [[2.577]<br/>[1.731]<br/>[3.577]<br/>[3.538]<br/>[7.231]]>, fillcolor="#efb387"] ;
9 -> 10 ;
11 [label=<squared_error = 3.446<br/>samples = 67<br/>value = [[3.31]<br/>[2.89]<br/>[4.99]<br/>[4.25]<br/>[8.33]]>, fillcolor="#f3c4a3"] ;
9 -> 11 ;
12 [label=<temperature_celsius &le; 20.5<br/>squared_error = 4.167<br/>samples = 28<br/>value = [[3.386]<br/>[3.614]<br/>[5.068]<br/>[5.818]<br/>[9.818]]>, fillcolor="#f6d4bc"] ;
8 -> 12 ;
13 [label=<squared_error = 3.606<br/>samples = 6<br/>value = [[4.5]<br/>[5.125]<br/>[5.625]<br/>[6.75]<br/>[7.5]]>, fillcolor="#f4c8a8"] ;
12 -> 13 ;
14 [label=<squared_error = 3.744<br/>samples = 22<br/>value = [[3.139]<br/>[3.278]<br/>[4.944]<br/>[5.611]<br/>[10.333]]>, fillcolor="#f4cbad"] ;
12 -> 14 ;
}
